digraph Tree {
node [shape=box, fontname="helvetica"] ;
edge [fontname="helvetica"] ;
0 [label="X[0] <= 6.797\nmse = 86.013\nsamples = 404\nvalue = 22.548"] ;
1 [label="X[0] <= 6.546\nmse = 40.386\nsamples = 329\nvalue = 19.597"] ;
0 -> 1 [labeldistance=2.5, labelangle=45, headlabel="True"] ;
2 [label="X[0] <= 5.862\nmse = 34.233\nsamples = 286\nvalue = 18.787"] ;
1 -> 2 ;
3 [label="X[0] <= 4.0\nmse = 37.194\nsamples = 94\nvalue = 16.443"] ;
2 -> 3 ;
4 [label="mse = 4.84\nsamples = 2\nvalue = 25.3"] ;
3 -> 4 ;
5 [label="mse = 36.155\nsamples = 92\nvalue = 16.25"] ;
3 -> 5 ;
6 [label="X[0] <= 5.879\nmse = 28.774\nsamples = 192\nvalue = 19.935"] ;
2 -> 6 ;
7 [label="mse = 80.239\nsamples = 10\nvalue = 23.59"] ;
6 -> 7 ;
8 [label="mse = 25.172\nsamples = 182\nvalue = 19.735"] ;
6 -> 8 ;
9 [label="X[0] <= 6.782\nmse = 47.936\nsamples = 43\nvalue = 24.984"] ;
1 -> 9 ;
10 [label="X[0] <= 6.676\nmse = 38.983\nsamples = 41\nvalue = 25.695"] ;
9 -> 10 ;
11 [label="mse = 26.869\nsamples = 24\nvalue = 24.642"] ;
10 -> 11 ;
12 [label="mse = 52.307\nsamples = 17\nvalue = 27.182"] ;
10 -> 12 ;
13 [label="X[0] <= 6.788\nmse = 8.41\nsamples = 2\nvalue = 10.4"] ;
9 -> 13 ;
14 [label="mse = 0.0\nsamples = 1\nvalue = 7.5"] ;
13 -> 14 ;
15 [label="mse = 0.0\nsamples = 1\nvalue = 13.3"] ;
13 -> 15 ;
16 [label="X[0] <= 7.437\nmse = 80.421\nsamples = 75\nvalue = 35.492"] ;
0 -> 16 [labeldistance=2.5, labelangle=-45, headlabel="False"] ;
17 [label="X[0] <= 7.074\nmse = 35.444\nsamples = 50\nvalue = 30.86"] ;
16 -> 17 ;
18 [label="X[0] <= 6.83\nmse = 39.675\nsamples = 29\nvalue = 29.214"] ;
17 -> 18 ;
19 [label="mse = 2.422\nsamples = 4\nvalue = 32.725"] ;
18 -> 19 ;
20 [label="mse = 43.347\nsamples = 25\nvalue = 28.652"] ;
18 -> 20 ;
21 [label="X[0] <= 7.294\nmse = 20.691\nsamples = 21\nvalue = 33.133"] ;
17 -> 21 ;
22 [label="mse = 4.226\nsamples = 14\nvalue = 34.571"] ;
21 -> 22 ;
23 [label="mse = 41.211\nsamples = 7\nvalue = 30.257"] ;
21 -> 23 ;
24 [label="X[0] <= 8.753\nmse = 41.642\nsamples = 25\nvalue = 44.756"] ;
16 -> 24 ;
25 [label="X[0] <= 7.793\nmse = 20.704\nsamples = 24\nvalue = 45.708"] ;
24 -> 25 ;
26 [label="mse = 18.647\nsamples = 7\nvalue = 42.914"] ;
25 -> 26 ;
27 [label="mse = 17.013\nsamples = 17\nvalue = 46.859"] ;
25 -> 27 ;
28 [label="mse = -0.0\nsamples = 1\nvalue = 21.9"] ;
24 -> 28 ;
}